/* Standalone tiny nanoGPT runtime. */
/* Generated from generated/model_fp32_data.c plus a C inference runtime. */
#include <errno.h>
#include <float.h>
#include <limits.h>
#include <math.h>
#include <stdint.h>
#include <stdio.h>
#include <stdlib.h>
#include <string.h>

/* Generated by scripts/export_tensor_data_to_c.py. */
/* Source directory: /Users/jacobhillman/projects/tiny-llm/nanoGPT/out-tiny/model_fp32/data */
/* 0: transformer.wte.weight / lm_head.weight; shape 65x8; 520 float32 values */
const float transformer_wte_weight_and_lm_head_weight[65][8] = {
    {0.0565109476f, 0.817717254f, 0.496413797f, -0.614934087f, -0.218390122f, -0.208699107f, -0.659074485f, 0.348139346f},
    {0.687643349f, 0.170583978f, 0.352097541f, -0.716263294f, -0.232339397f, 0.207215145f, -0.105559573f, -0.349213004f},
    {-0.177644983f, 0.152188972f, 0.148663297f, 0.165222645f, -0.239415437f, -0.105828226f, -0.137295023f, -0.0538744554f},
    {-0.818999887f, 0.326226592f, -0.194308802f, 0.769147813f, 0.18486388f, 0.0271373745f, -0.495685458f, 0.292691201f},
    {-0.833800852f, 0.33538118f, -0.187571496f, 0.775508821f, 0.197771117f, 0.0206358507f, -0.466894597f, 0.296998501f},
    {0.0958197489f, 0.180687964f, -0.0468727387f, -0.0957102329f, -0.222314373f, 0.026591165f, 0.0725811422f, -0.300962329f},
    {0.268716067f, 0.0320097841f, 0.330431968f, -0.0623613484f, -0.314882249f, -0.0857962668f, -0.0677429438f, -0.219046906f},
    {-0.12101084f, 0.478701472f, -0.089284189f, 0.299203396f, -0.376698107f, -0.0597109869f, -0.142759681f, -0.428207487f},
    {0.0197674725f, 0.0874803886f, 0.363465458f, 0.09505824f, -0.165202692f, 0.079080157f, -0.201388329f, 0.00418458413f},
    {-0.65445739f, 0.227909997f, -0.0391503759f, 0.620883822f, 0.112021402f, -0.261129498f, -0.28577733f, 0.349314839f},
    {0.307410002f, 0.117201008f, 0.461985946f, 0.046267502f, 0.0137322061f, -0.93138355f, -0.0317367241f, 0.141625419f},
    {-0.132496879f, 0.037552692f, 0.18514204f, 0.19128406f, -0.254433393f, -0.169445634f, -0.0806578845f, -0.0819515213f},
    {-0.0785108954f, 0.176536679f, 0.212032363f, 0.148934305f, -0.19579123f, -0.0755875558f, -0.171389028f, 0.00739950314f},
    {0.215272874f, 0.135100603f, -0.711694717f, 0.211446613f, -0.154327542f, -0.352226675f, -0.0261029508f, 0.462931067f},
    {-0.271364361f, 0.240379021f, -0.602431595f, 0.396182239f, 0.259618551f, -0.318488449f, -0.112395681f, 0.635018587f},
    {-0.176336035f, 0.256191671f, -0.540262341f, 0.134034976f, 0.553624511f, -0.305731624f, -0.126571864f, 0.476102799f},
    {-0.124490455f, 0.214789972f, -0.434086889f, 0.222067684f, 0.240526482f, -0.332876891f, -0.148151591f, 0.425762713f},
    {0.26122278f, 0.0595683679f, -0.653315604f, 0.55659622f, 0.17197524f, -0.391358852f, -0.108664207f, 0.51478982f},
    {-0.19439353f, 0.190784246f, -0.387560546f, 0.167162657f, 0.142442524f, -0.269912928f, -0.135771021f, 0.473648608f},
    {-0.0733416975f, 0.0885110572f, -0.382881671f, 0.128039613f, 0.191112667f, -0.290026188f, -0.143761292f, 0.503470242f},
    {-0.296583772f, 0.254704386f, -0.589026332f, 0.301336884f, -0.0479383506f, -0.417992473f, -0.0725008175f, 0.593842983f},
    {0.33529231f, 0.0184018631f, -0.557349026f, -0.0315127857f, -0.0449479558f, -0.429201514f, 0.0669603348f, 0.469597459f},
    {-0.593271494f, 0.271249086f, -0.341404915f, 0.455628365f, 0.168830559f, -0.0294577368f, -0.251643598f, 0.41075927f},
    {-0.337494135f, 0.334788173f, -0.49063006f, 0.32680127f, 0.307142735f, -0.465834141f, -0.15423505f, 0.387819588f},
    {-0.109107293f, 0.236101121f, -0.503054142f, 0.179908782f, 0.540325284f, -0.371326298f, -0.158387735f, 0.416741341f},
    {-0.356421918f, 0.296726793f, -0.541119635f, 0.305720717f, 0.45906651f, -0.443627149f, -0.126062453f, 0.487015724f},
    {-0.0938870609f, 0.151047558f, -0.425983101f, 0.224405929f, 0.774538934f, -0.374378949f, -0.2038818f, 0.467270851f},
    {0.225821778f, 0.0591559708f, -0.535841823f, 0.323470533f, 0.216696694f, -0.359272391f, -0.126418963f, 0.420677692f},
    {-0.390354007f, 0.294341832f, -0.563052118f, 0.345181078f, 0.248330653f, -0.199014828f, -0.174136654f, 0.379244238f},
    {-0.621155739f, 0.367958903f, -0.406211317f, 0.483487338f, 0.0313148312f, -0.0173513871f, -0.262613446f, 0.344630092f},
    {-0.0690391809f, 0.194173783f, -0.501298964f, 0.241775081f, 0.623026252f, -0.400367856f, -0.19042179f, 0.4070988f},
    {-0.313910812f, 0.323273152f, -0.513112605f, 0.339334071f, 0.579380751f, -0.676118553f, -0.0463705249f, 0.493131191f},
    {-0.268647313f, 0.270369083f, -0.511394262f, 0.152840257f, 0.35769704f, -0.680407286f, 0.00531675201f, 0.632634997f},
    {0.29701063f, 0.221599847f, -0.731533527f, 0.578820527f, 0.196394667f, -0.0529467911f, -0.324181974f, 0.137680531f},
    {-0.366822749f, 0.274812162f, -0.396033287f, 0.283302099f, 0.285335779f, -0.215449005f, -0.207744151f, 0.349628747f},
    {-0.331181228f, 0.379522711f, -0.501762927f, 0.0558815226f, 0.0435407571f, -0.441760361f, -0.0451414883f, 0.418565363f},
    {-0.697645724f, 0.28214258f, -0.243703678f, 0.551078141f, 0.296512485f, -0.0664029717f, -0.356841862f, 0.296685487f},
    {-0.201847434f, 0.152102664f, -0.382620692f, 0.275975585f, 0.208559826f, -0.427228689f, -0.126331151f, 0.547698259f},
    {-0.56059444f, 0.332246453f, -0.262901276f, 0.406670511f, 0.335980028f, -0.0921492651f, -0.28339985f, 0.316012412f},
    {0.297723949f, -0.653519571f, -0.0322501883f, 0.225043759f, -0.303992361f, 0.419610858f, 0.418112159f, -0.37664777f},
    {-0.443955809f, -0.265495658f, -0.198672801f, 0.0193561483f, 0.100433215f, 0.264805317f, 0.328123868f, -0.000400249701f},
    {-0.487952054f, 0.165983349f, -0.0546926297f, -0.358482361f, 0.0664785355f, 0.320477247f, 0.420921534f, -0.21148096f},
    {-0.351690382f, -0.0511495993f, 0.153467953f, -0.0635643452f, -0.118389271f, 0.149452329f, 0.562285423f, -0.348474443f},
    {0.145546108f, -0.688816249f, 0.260462344f, 0.454024404f, -0.555183411f, 0.264531344f, 0.392601699f, -0.380763918f},
    {-0.125861377f, -0.458741993f, -0.0481136069f, -0.22737895f, 0.335028172f, 0.173901156f, 0.151652381f, 0.073549293f},
    {-0.360819131f, 0.208296835f, 0.0332964584f, -0.161364108f, -0.0624016225f, 0.101135701f, 0.539868534f, -0.245217159f},
    {0.00691415882f, -0.164509758f, -0.116667405f, 0.0551601239f, -0.984323263f, 0.0678608418f, 0.5366593f, 0.637492299f},
    {0.381740063f, -0.51808995f, -0.0742392242f, 0.206886053f, -0.470974863f, 0.410554558f, 0.366194844f, -0.420123875f},
    {-0.787993371f, -0.0956073776f, -0.0777833462f, 0.337624162f, 0.179445013f, 0.036475122f, -0.101606391f, 0.412483335f},
    {-0.594821811f, -0.288264304f, 0.0539700985f, 0.394949585f, 0.0762993172f, -0.0519311391f, 0.472124636f, -0.243475959f},
    {-0.36942482f, -0.4944143f, 0.134610966f, 0.0601389147f, 0.113038242f, 0.392779469f, 0.353969932f, -0.313077331f},
    {-0.326595753f, -0.337946624f, -0.057721667f, -0.142873421f, 0.38383919f, 0.21620886f, 0.362115264f, -0.118488908f},
    {-0.322058499f, -0.0154739339f, 0.0361999385f, -0.173869014f, 0.47310704f, 0.117832258f, 0.498413056f, -0.545630515f},
    {0.414694637f, -0.767807305f, 0.130364865f, -0.0253638141f, -0.204629287f, 0.314937949f, 0.189140409f, 0.0783824101f},
    {-0.285982192f, -0.275646925f, -0.0574565157f, -0.0314024799f, 0.0840335041f, 0.25316897f, 0.291995764f, -0.0931101516f},
    {-0.459336132f, -0.0472979695f, -0.214325055f, 0.425394833f, 0.118891485f, 0.276857138f, -0.293974429f, 0.392858148f},
    {-0.234391764f, -0.396732122f, 0.176730379f, -0.0917337835f, 0.269338876f, 0.384649575f, 0.199880376f, -0.369287759f},
    {-0.167137936f, -0.0749135986f, 0.111748077f, -0.368154615f, 0.125019222f, 0.15248394f, 0.572320938f, -0.326267689f},
    {-0.274227113f, -0.122108541f, 0.14455229f, -0.576804161f, 0.232106179f, 0.0840218961f, 0.61981982f, -0.10395319f},
    {0.0491574332f, -0.708297729f, -0.00588174816f, 0.0718617961f, 0.357766151f, 0.276426703f, 0.0802241415f, -0.121024303f},
    {-0.813269854f, -0.00804775674f, 0.0542380437f, 0.0532243475f, 0.496022463f, 0.200082973f, 0.192479804f, -0.203895688f},
    {-0.179731727f, -0.161674753f, -0.145194694f, -0.326290727f, 0.471475542f, 0.0122477319f, 0.33259052f, 0.0447363779f},
    {-0.455200881f, 0.11042852f, -0.0824349746f, 0.596206546f, 0.224356875f, -0.15255788f, -0.0901558995f, -0.204988837f},
    {-0.294031471f, -0.568351686f, 0.200161695f, 0.0384025648f, 0.0369813219f, 0.193866059f, 0.310204893f, 0.0449936427f},
    {-0.968844116f, 0.2439024f, -0.0313779637f, 0.507565558f, 0.351672798f, -0.080652304f, -0.0671748072f, 0.0674228817f},
};

/* 1: transformer.wpe.weight; shape 32x8; 256 float32 values */
const float transformer_wpe_weight[32][8] = {
    {-0.0965860784f, -0.13280493f, -0.144303158f, -0.0874851421f, -0.428138793f, -0.0141829224f, 0.255621254f, 0.337112695f},
    {-0.11581967f, -0.083158195f, -0.0881257802f, -0.0869006142f, -0.343227834f, 0.0327156149f, 0.179857746f, 0.18079783f},
    {-0.0917585492f, -0.0738306344f, -0.0876454562f, -0.0968069807f, -0.278249145f, -0.0055478625f, 0.143608958f, 0.111723125f},
    {-0.0282608792f, -0.049134519f, -0.0488354564f, -0.0680444315f, -0.2094419f, 0.00281446613f, 0.163192451f, 0.122650661f},
    {-0.00989644416f, -0.0485952869f, -0.0427948833f, -0.0629766509f, -0.168331042f, -0.0172094312f, 0.151780114f, 0.101380177f},
    {0.0259076338f, -0.0361829177f, -0.0375736654f, -0.0498779714f, -0.147253305f, -0.00627022889f, 0.144547567f, 0.108064353f},
    {0.012880086f, -0.0440553948f, -0.0328827277f, -0.0247966051f, -0.115654796f, -0.0135715818f, 0.112764142f, 0.0730350539f},
    {0.0162541382f, -0.0526092201f, -0.0280602034f, -0.0458950326f, -0.123637289f, -0.0275900401f, 0.102640457f, 0.0680874884f},
    {0.0337265246f, -0.0366192013f, -0.0186559483f, -0.033129815f, -0.0968556479f, -0.0165202767f, 0.1104322f, 0.069378823f},
    {0.0245357212f, -0.0502320416f, -0.0334283151f, -0.0308695063f, -0.0954371616f, -0.0314149074f, 0.0935990885f, 0.043751128f},
    {0.0315788537f, -0.0489750914f, -0.0223356634f, -0.0353529975f, -0.0832923427f, -0.0236690436f, 0.0870285258f, 0.0494341627f},
    {0.0579464287f, -0.0129349669f, 0.00185797107f, 0.000978721189f, -0.0560191534f, -0.0112369964f, 0.0957935601f, 0.0480639264f},
    {0.026687935f, -0.058195889f, -0.0199726261f, -0.017095454f, -0.0750167295f, -0.0312781893f, 0.0577035584f, 0.0339157432f},
    {0.0368853696f, -0.0453491025f, -0.013614825f, -0.00743336882f, -0.0573002025f, -0.0167473108f, 0.0648775473f, 0.0185622144f},
    {0.0643991381f, -0.0204367191f, 0.0127941389f, 0.0260504596f, -0.0160011034f, -0.00271614105f, 0.0852784291f, 0.0347800516f},
    {0.0354098678f, -0.0605085902f, -0.010941267f, -0.0168383271f, -0.0484502092f, -0.0372471064f, 0.0493790545f, 0.000693236943f},
    {0.0349895656f, -0.0586183183f, -0.0203488842f, -0.00864951964f, -0.0392342024f, -0.0330905989f, 0.0529532842f, 0.00997669622f},
    {0.0471719317f, -0.0509063564f, -0.00825824216f, 0.00029837605f, -0.0217769705f, -0.0256028101f, 0.0586580895f, 0.0160894934f},
    {0.0639512315f, -0.0375316329f, -0.000729808584f, 0.00620022928f, -0.00339823635f, -0.0240264237f, 0.0610783398f, 0.010321781f},
    {0.0627054274f, -0.0367222391f, 0.0178205334f, 0.017168846f, -0.00753201125f, -0.0252180304f, 0.0552004725f, 0.013799021f},
    {0.0384040177f, -0.0467735194f, -0.0113708638f, 0.00523221307f, -0.0202565677f, -0.0380149409f, 0.0215403587f, -0.0138769029f},
    {0.0365141407f, -0.052002836f, -0.00138178864f, 0.0134922322f, 0.00183407811f, -0.0366327725f, 0.0273445304f, -0.0111997966f},
    {0.0464731418f, -0.0525303856f, 0.00928593986f, 0.0185403414f, 0.00594531791f, -0.0271655731f, 0.0334217399f, -0.0177094322f},
    {0.0631277189f, -0.0388175957f, 0.00987332407f, 0.0222372655f, 0.0389407203f, -0.0131313363f, 0.0391650461f, -0.0079618413f},
    {0.051527068f, -0.0375933163f, 0.0240898766f, 0.0175866764f, 0.0340998173f, -0.0201003794f, 0.0324428752f, -0.00911694206f},
    {0.0595920198f, -0.0431556515f, 0.006703855f, 0.0228278022f, 0.0480607189f, -0.0363594741f, 0.033563219f, -0.0214185696f},
    {0.0703920126f, -0.0276757088f, 0.0237832107f, 0.0432138406f, 0.0710194185f, -0.0116383135f, 0.0430161133f, 0.00383606832f},
    {0.0611780882f, -0.0484937914f, 0.0214749891f, 0.0154000763f, 0.0448047854f, -0.0312408358f, 0.03166968f, -0.0117766224f},
    {0.0556973778f, -0.0466277376f, 0.00239458471f, 0.0361900628f, 0.0362878703f, -0.031357713f, 0.0376412719f, -0.0167027805f},
    {0.0592198968f, -0.0522285327f, -0.00320613571f, 0.0142996553f, 0.00634143269f, -0.0453927219f, 0.0346039571f, -0.0186032765f},
    {0.0678314865f, -0.0444438122f, -0.000144184582f, 0.0165759549f, 0.0158942826f, -0.0329883583f, 0.0381009802f, -0.0132381776f},
    {0.0814787224f, -0.030816637f, -0.00109641347f, 0.0317861438f, -0.0250159632f, -0.043174319f, 0.0443686247f, 0.0140120983f},
};

/* 2: transformer.h.0.ln_1.weight; shape 8; 8 float32 values */
const float transformer_h_0_ln_1_weight[8] = {
    1.26996815f, 1.11923933f, 1.26909161f, 1.12361932f, 1.12486601f, 1.18209696f, 1.26025093f, 1.16867888f,
};

/* 3: transformer.h.0.attn.c_attn.weight; shape 24x8; 192 float32 values */
const float transformer_h_0_attn_c_attn_weight[24][8] = {
    {-0.131227642f, -0.205695733f, 0.281020403f, -0.158807844f, 0.0248757005f, 0.153721377f, 0.407387286f, -0.219378635f},
    {0.042426575f, -0.0195466485f, -0.253744632f, 0.140199155f, 0.0391589068f, -0.155184016f, 0.113566056f, 0.151182696f},
    {-0.0254616104f, 0.127517521f, 0.237044096f, -0.0370627269f, -0.161215633f, 0.0317698158f, -0.193779677f, -0.101648122f},
    {-0.00611940259f, -0.0659696087f, -0.241732419f, 0.115233772f, 0.07679189f, -0.142637938f, 0.287838727f, 0.143080369f},
    {-0.0134447301f, 0.156520709f, 0.21698691f, 0.230649799f, -0.146036729f, -0.150574848f, -0.206284508f, -0.0281926505f},
    {-0.202592298f, -0.395876884f, -0.213376448f, -0.196389362f, 0.164461762f, -0.117218733f, 1.02149189f, 0.079703778f},
    {0.100632101f, 0.27797094f, 0.243211895f, 0.0722932294f, -0.229135722f, 0.0341208167f, -0.771007061f, -0.105016738f},
    {0.356392831f, 0.213753164f, -0.129858464f, -0.0077125798f, -0.163729653f, 0.265122384f, -0.588649631f, 0.0521262735f},
    {0.386382699f, -0.200165376f, -0.38654986f, -0.13206622f, -0.161235601f, 0.471286178f, 0.216882035f, -0.189627856f},
    {-0.0159464739f, 0.0564991161f, 0.402075469f, 0.174229741f, 0.144310027f, -0.331119388f, -0.187434807f, -0.0647323579f},
    {0.0176314209f, 0.116560698f, -0.307947069f, -0.165510237f, -0.119374409f, 0.278048038f, 0.0815391988f, 0.0298079737f},
    {0.0851961076f, -0.0349547975f, 0.376173526f, 0.208172083f, 0.153374463f, -0.33242166f, -0.205755666f, -0.120787613f},
    {-0.0400861539f, 0.291847885f, -0.0634754598f, -0.315200657f, -0.313143164f, 0.141305879f, 0.0486221686f, 0.110872649f},
    {0.604310036f, -0.268757612f, 0.094934687f, 0.197213724f, 0.424137056f, -0.105437368f, -0.298273832f, -0.483457565f},
    {-0.272513777f, 0.180466264f, -0.244595021f, -0.287999243f, -0.305335283f, 0.245397821f, 0.0938127413f, 0.203732103f},
    {-0.684965789f, 0.00931874197f, -0.0279441681f, 0.120073624f, -0.0418270379f, -0.190778583f, 0.303624541f, 0.387797445f},
    {0.0309574697f, -0.0709612817f, 0.048458863f, -0.0701070204f, 0.029701855f, -0.0765181929f, 0.145419106f, -0.0358022749f},
    {0.0273843631f, 0.0698040649f, -0.0448877774f, 0.0418820903f, 0.0644639358f, 0.0134702753f, -0.136881381f, 0.0449057631f},
    {0.113132425f, 0.00118011481f, -0.150684506f, -0.0238504894f, -0.0584442317f, 0.115219191f, -0.104171693f, 0.102584228f},
    {0.0559493564f, -0.0176299606f, 0.052207496f, -0.0998488665f, 0.0179139506f, -0.0861018449f, 0.127835169f, -0.0436547399f},
    {0.0304342862f, 0.0366401486f, 0.12099991f, -0.121070877f, 0.0764949098f, -0.176056981f, 0.0974133164f, -0.0452158712f},
    {-0.0551402979f, -0.0837617144f, 0.0236166418f, 0.0425169542f, -0.0452034213f, -0.000887919799f, 0.128843665f, 0.0170334578f},
    {0.0527764522f, -0.0801220536f, -0.037678346f, -0.0331137106f, -0.028397819f, -0.173787862f, 0.18722111f, 0.0159596168f},
    {-0.0160452686f, -0.141818553f, -0.115570046f, 0.138288125f, -0.129304186f, -0.0352388471f, 0.189867973f, 0.132965103f},
};

/* 4: transformer.h.0.attn.c_proj.weight; shape 8x8; 64 float32 values */
const float transformer_h_0_attn_c_proj_weight[8][8] = {
    {-0.0226457417f, 0.0436438508f, 0.180696309f, -0.00993837323f, -0.0683271065f, -0.0162223782f, 0.124967866f, 0.210753784f},
    {-0.0642332062f, 0.0520777404f, 0.0146809043f, -0.051369261f, -0.0925769284f, -0.002306832f, -0.0884378105f, -0.0174413566f},
    {0.0138589125f, -0.038543649f, -0.0114513235f, 0.0517402068f, 0.0760457292f, 0.0148336478f, 0.0326281674f, 0.0121625103f},
    {-0.0632455274f, -0.0387973115f, 0.124333315f, -0.0328003466f, -0.133855522f, 0.0436595231f, -0.0660054237f, 0.143149078f},
    {0.0054052677f, -0.104085572f, -0.0759042352f, -0.0447736084f, -0.123127818f, 0.171684489f, 0.0387120061f, 0.351010412f},
    {-0.00834174268f, -0.0115403645f, -0.0254695043f, 0.0109844524f, 0.0297041703f, -0.0201772135f, -0.125852734f, -0.248284817f},
    {0.161816925f, -0.113542482f, -0.0724148899f, 0.14844206f, 0.0940621421f, 0.0669159517f, 0.104406796f, 0.0425827429f},
    {-0.0163110346f, 0.0567078441f, -0.0652863532f, 0.015985515f, 0.0923207998f, -0.0662366524f, 0.0921826735f, -0.117034696f},
};

/* 5: transformer.h.0.ln_2.weight; shape 8; 8 float32 values */
const float transformer_h_0_ln_2_weight[8] = {
    1.21523631f, 1.25877464f, 1.2329818f, 1.30822301f, 1.27624905f, 1.25905764f, 1.24149132f, 1.22708428f,
};

/* 6: transformer.h.0.mlp.c_fc.weight; shape 32x8; 256 float32 values */
const float transformer_h_0_mlp_c_fc_weight[32][8] = {
    {0.265407652f, -0.326474994f, 0.0293675531f, 0.00393890962f, -0.214586243f, -0.0525065958f, -0.212708786f, 0.281745315f},
    {-0.451119095f, 0.0969116986f, -0.235032901f, 0.18419826f, 0.20119001f, 0.0357340612f, 0.0316090472f, 0.170799375f},
    {0.137406856f, 0.0959712565f, 0.00698974729f, -0.0803346857f, 0.144475996f, 0.106101744f, -0.181706876f, -0.163806543f},
    {0.0235636942f, 0.0875827447f, 0.102947876f, -0.304320097f, 0.145005777f, -0.03035881f, -0.0360410735f, 0.0960708112f},
    {-0.015763402f, 0.0171228237f, 0.234277844f, -0.00422442518f, -0.0182765555f, -0.0575337373f, -0.196471617f, 0.121163316f},
    {-0.164565966f, 0.0237382539f, 0.193685561f, -0.140279531f, 0.131292254f, -0.0926931873f, 0.160690725f, -0.0447739623f},
    {-0.0169496089f, -0.239541426f, 0.337490797f, 0.054091759f, -0.0610323623f, -0.359531462f, 0.133502841f, -0.0662552118f},
    {-0.00988477189f, -0.118925363f, -0.146792009f, 0.188821211f, -0.103775315f, 0.0382804498f, 0.220039293f, 0.00503661856f},
    {-0.133536458f, -0.0882388726f, -0.0662676394f, 0.0875064284f, -0.0182865337f, -0.0851814672f, 0.171161741f, 0.137203708f},
    {0.255810112f, 0.201725051f, 0.0858932585f, -0.255154997f, -0.110584021f, 0.1686562f, -0.125986218f, -0.0958380401f},
    {-0.273004562f, -0.103561476f, 0.105554305f, 0.107310668f, -0.113574982f, 0.142933592f, 0.0933260173f, 0.0357880518f},
    {0.138877586f, 0.0303176045f, -0.198991314f, -0.116558157f, -0.152238533f, 0.435959935f, 0.145614833f, -0.272947133f},
    {0.143141687f, 0.0632574335f, -0.033453647f, -0.123628937f, -0.00459134998f, 0.170835122f, -0.0824796408f, -0.062258333f},
    {-0.276878893f, -0.125891566f, 0.151214704f, -0.114833705f, 0.0137114208f, 0.17056796f, 0.116685912f, 0.0858292952f},
    {-0.0964010581f, 0.0994473621f, 0.146017939f, 0.254775614f, -0.0644692853f, -0.267020404f, -0.582369447f, 0.155535564f},
    {-0.355756283f, -0.0215682741f, 0.109121859f, -0.187048867f, -0.0845676214f, 0.310121298f, 0.193548337f, 0.0810574815f},
    {0.134990156f, -0.188386813f, -0.294652492f, 0.365100294f, 0.0803543404f, 0.139802068f, 0.147915244f, -0.135961533f},
    {0.0537610911f, -0.0675658733f, 0.161735296f, 0.0964306965f, 0.42304793f, -0.199215174f, 0.0762705058f, -0.29680711f},
    {0.034508124f, 0.356261045f, -0.0116549609f, -0.00975935906f, -0.0458490215f, 0.0387458503f, -0.70614326f, 0.0373882465f},
    {-0.10377901f, -0.147633836f, -0.142517835f, -0.0550996587f, 0.171075553f, -0.0471383855f, 0.113423094f, 0.173462972f},
    {-0.225719661f, -0.0791174099f, -0.125169888f, -0.000673906412f, 0.195950478f, -0.165608257f, 0.101110175f, 0.246064514f},
    {-0.141868442f, -0.251372814f, 0.235928148f, -0.0233298354f, -0.0973245502f, 0.114701428f, 0.0895150825f, 0.126971021f},
    {0.104881123f, -0.0511227772f, 0.125021383f, -0.131392136f, 0.0335204341f, 0.0377652086f, -0.16004692f, 0.0646255761f},
    {0.388205171f, -0.0748087019f, 0.119267784f, -0.184596628f, -0.14032875f, 0.164797664f, -0.2077384f, 0.00218904507f},
    {0.0937626734f, 0.0516009852f, 0.060331475f, -0.123911358f, 0.0992765278f, 0.0148578007f, -0.161825389f, 0.00137114734f},
    {0.0910044312f, -0.255254358f, -0.20566231f, 0.135340527f, -0.172908813f, 0.119768247f, 0.182203829f, 0.0102977976f},
    {-0.220996633f, -0.154343918f, 0.345930845f, -0.0539391264f, -0.00462779263f, -0.0554759428f, 0.27663222f, -0.114349738f},
    {0.037545234f, -0.0126481038f, -0.144344941f, 0.00597466948f, 0.140357956f, -0.0954325795f, 0.312162042f, -0.0228981636f},
    {0.134731069f, 0.109365076f, 0.0133560784f, -0.330213875f, -0.138480484f, 0.293491989f, -0.0824128017f, -0.171913192f},
    {-0.133771062f, 0.0306121223f, -0.0430870429f, 0.202594995f, -0.303745985f, -0.0200532861f, 0.128195286f, 0.0966047049f},
    {-0.0081927171f, 0.21872808f, 0.265489191f, -0.213581085f, -0.0619813241f, -0.165867195f, -0.0552237406f, 0.0518685542f},
    {0.0363996252f, -0.191775814f, 0.020683011f, -0.00956418086f, -0.035615202f, -0.124032266f, 0.184623152f, 0.051618088f},
};

/* 7: transformer.h.0.mlp.c_proj.weight; shape 8x32; 256 float32 values */
const float transformer_h_0_mlp_c_proj_weight[8][32] = {
    {0.15632987f, 0.14101623f, 0.0250891671f, -0.0360042304f, 0.0766821206f, 0.1450326f, 0.21007368f, -0.15251182f, 0.0634577125f, -0.119117558f, 0.254970998f, -0.17437923f, -0.116267338f, 0.111464299f, 0.256418884f, 0.0303916242f, -0.353694856f, -0.0452038869f, 0.197055593f, -0.0335057937f, 0.157179177f, 0.154876366f, -0.0563118421f, -0.0950385556f, -0.0683236495f, -0.224841833f, 0.284441739f, -0.168960705f, -0.150879741f, 0.133963436f, -0.0445043221f, 0.0137834549f},
    {-0.000183082142f, -0.236225262f, -0.0584501773f, 0.149025798f, 0.156397581f, 0.0487167947f, 0.334691733f, 0.0302857105f, -0.108144045f, -0.277756423f, -0.05885401f, -0.299733162f, -0.115922108f, -0.0586768836f, 0.035228774f, -0.315547258f, 0.144120976f, 0.155191377f, 0.260878682f, -0.095669575f, -0.227722898f, 0.0358752869f, 0.173331097f, -0.160891473f, 0.0941131711f, 0.149255112f, 0.0953368321f, 0.0067238328f, -0.342846483f, -0.0877442658f, 0.145220697f, 0.162309349f},
    {-0.143378362f, -0.130143464f, -0.306589097f, -0.260445774f, -0.141207084f, 0.0710436404f, 0.0978333503f, 0.218464881f, 0.133909449f, -0.297209591f, -0.119731985f, 0.219929039f, -0.159025609f, -0.128660217f, 0.0858833715f, -0.102420896f, 0.231136069f, 0.399577677f, -0.110541224f, 0.0422858596f, 0.0441089123f, -0.224369407f, -0.305146456f, -0.350706816f, -0.267783612f, 0.135538042f, 0.124524236f, 0.257083595f, -0.117033452f, 0.146711364f, -0.132540435f, 0.0449117273f},
    {0.0348711498f, 0.0660194829f, 0.140229434f, 0.0187001545f, -0.241548568f, -0.142356083f, -0.452575505f, -0.173263982f, -0.00575197488f, 0.134866998f, 0.0864588469f, -0.250935614f, 0.0927481651f, 0.12618497f, -0.41733861f, 0.263463378f, -0.332666874f, -0.106717892f, -0.0668762848f, 0.0842061266f, -0.0153695773f, 0.163525432f, -0.00583345722f, 0.0951475427f, 0.0527077243f, -0.191892713f, -0.122846544f, -0.00111690175f, -0.00282195839f, 0.0168182403f, -0.242872998f, -0.0519230627f},
    {0.396262914f, 0.0646057129f, -0.150136426f, -0.222956106f, 0.144763529f, -0.264908701f, -0.0190833285f, 0.166478604f, -0.122940503f, 0.0439542942f, 0.0437384881f, 0.140680283f, 0.0582472049f, -0.0687551796f, 0.0365405604f, -0.0454991944f, 0.0919090658f, -0.466290921f, -0.0280084647f, -0.112618513f, -0.213953033f, 0.0619623922f, 0.0804393291f, 0.285938352f, -0.00779950246f, 0.404632092f, -0.167374671f, -0.181871742f, 0.13413243f, 0.0663390011f, -0.0301158279f, -0.00133285974f},
    {-0.1495478f, 0.0226655863f, -0.0137473168f, 0.258523643f, 0.14106147f, -0.12426839f, 0.208775714f, 0.0961141437f, 0.160167247f, 0.114271365f, 0.0542858727f, -0.0130420644f, -0.029459795f, -0.0671428293f, -0.141348228f, -0.0902838409f, 0.151093706f, -0.0138597041f, -0.36625585f, 0.263048738f, 0.249274835f, -0.0217473395f, 0.0232571959f, 0.0232843123f, 0.0659155846f, 0.0105878916f, -0.0822175965f, 0.0777992532f, 0.056870725f, 0.0563048087f, 0.313508868f, 0.108330384f},
    {-0.248893946f, 0.107118748f, 0.238167241f, 0.0754116029f, -0.0998503864f, 0.0649553537f, -0.401778877f, 0.108281352f, -0.0233939886f, 0.529188037f, -0.176159382f, 0.291538f, 0.252833545f, -0.0766121596f, 0.0208234079f, -0.0300689954f, 0.329364449f, 0.24603264f, -0.0932936221f, -0.092675589f, 0.0744903833f, -0.177318707f, -0.0235516429f, 0.251162678f, -0.0336764455f, 0.0357995592f, -0.193966046f, 0.0225196443f, 0.446541458f, 0.0340925716f, 0.0928635448f, -0.207459316f},
    {-0.107320175f, -0.0158642922f, 0.214584231f, 0.189409047f, -0.0168588106f, 0.178304225f, -0.032412447f, -0.206641927f, -0.195415124f, 0.128473163f, -0.0885533541f, 0.0507488586f, 0.0626274496f, 0.10980393f, 0.0589325652f, 0.243388802f, -0.0501178987f, -0.20980376f, 0.0625679642f, -0.147285715f, -0.0961175263f, 0.06988132f, 0.128915727f, 0.0107362857f, 0.177283779f, -0.29324463f, 0.0536133386f, -0.018981507f, 0.151027754f, -0.332182914f, 0.0744566545f, -0.0899399593f},
};

/* 8: transformer.ln_f.weight; shape 8; 8 float32 values */
const float transformer_ln_f_weight[8] = {
    2.22430348f, 2.37988162f, 2.18025851f, 2.05340123f, 2.12216139f, 2.0587492f, 2.20269036f, 2.0390327f,
};


#define BLOCK_SIZE 32
#define VOCAB_SIZE 65
#define N_LAYER 1
#define N_HEAD 1
#define N_EMBD 8
#define HEAD_SIZE 8
#define MLP_HIDDEN 32
#define LN_EPS 1.0e-5f

static const char vocab[VOCAB_SIZE] = {
    '\n', ' ', '!', '$', '&', '\'', ',', '-', '.', '3', ':', ';', '?',
    'A', 'B', 'C', 'D', 'E', 'F', 'G', 'H', 'I', 'J', 'K', 'L', 'M',
    'N', 'O', 'P', 'Q', 'R', 'S', 'T', 'U', 'V', 'W', 'X', 'Y', 'Z',
    'a', 'b', 'c', 'd', 'e', 'f', 'g', 'h', 'i', 'j', 'k', 'l', 'm',
    'n', 'o', 'p', 'q', 'r', 's', 't', 'u', 'v', 'w', 'x', 'y', 'z',
};

static int encode_char(char ch) {
    for (int i = 0; i < VOCAB_SIZE; i++) {
        if (vocab[i] == ch) {
            return i;
        }
    }
    return -1;
}

static char decode_token(int token) {
    if (token < 0 || token >= VOCAB_SIZE) {
        return '?';
    }
    return vocab[token];
}

static int encode_text(const char *text, int *tokens, int max_tokens) {
    int count = 0;
    for (const char *p = text; *p != '\0'; p++) {
        if (count >= max_tokens) {
            return -2;
        }
        int token = encode_char(*p);
        if (token < 0) {
            return -1;
        }
        tokens[count++] = token;
    }
    return count;
}

static void layer_norm_row(
    const float input[N_EMBD],
    const float weight[N_EMBD],
    float output[N_EMBD]
) {
    float mean = 0.0f;
    for (int i = 0; i < N_EMBD; i++) {
        mean += input[i];
    }
    mean /= (float)N_EMBD;

    float var = 0.0f;
    for (int i = 0; i < N_EMBD; i++) {
        float centered = input[i] - mean;
        var += centered * centered;
    }
    var /= (float)N_EMBD;

    float inv_std = 1.0f / sqrtf(var + LN_EPS);
    for (int i = 0; i < N_EMBD; i++) {
        output[i] = (input[i] - mean) * inv_std * weight[i];
    }
}

static void layer_norm_sequence(
    int seq_len,
    const float input[BLOCK_SIZE][N_EMBD],
    const float weight[N_EMBD],
    float output[BLOCK_SIZE][N_EMBD]
) {
    for (int t = 0; t < seq_len; t++) {
        layer_norm_row(input[t], weight, output[t]);
    }
}

static void linear_8_to_24(
    const float input[N_EMBD],
    const float weight[3 * N_EMBD][N_EMBD],
    float output[3 * N_EMBD]
) {
    for (int o = 0; o < 3 * N_EMBD; o++) {
        float sum = 0.0f;
        for (int i = 0; i < N_EMBD; i++) {
            sum += input[i] * weight[o][i];
        }
        output[o] = sum;
    }
}

static void linear_embd_to_embd(
    const float input[N_EMBD],
    const float weight[N_EMBD][N_EMBD],
    float output[N_EMBD]
) {
    for (int o = 0; o < N_EMBD; o++) {
        float sum = 0.0f;
        for (int i = 0; i < N_EMBD; i++) {
            sum += input[i] * weight[o][i];
        }
        output[o] = sum;
    }
}

static void linear_embd_to_mlp(
    const float input[N_EMBD],
    const float weight[MLP_HIDDEN][N_EMBD],
    float output[MLP_HIDDEN]
) {
    for (int o = 0; o < MLP_HIDDEN; o++) {
        float sum = 0.0f;
        for (int i = 0; i < N_EMBD; i++) {
            sum += input[i] * weight[o][i];
        }
        output[o] = sum;
    }
}

static void linear_mlp_to_embd(
    const float input[MLP_HIDDEN],
    const float weight[N_EMBD][MLP_HIDDEN],
    float output[N_EMBD]
) {
    for (int o = 0; o < N_EMBD; o++) {
        float sum = 0.0f;
        for (int i = 0; i < MLP_HIDDEN; i++) {
            sum += input[i] * weight[o][i];
        }
        output[o] = sum;
    }
}

static float gelu(float x) {
    return 0.5f * x * (1.0f + erff(x / sqrtf(2.0f)));
}

static void causal_attention(
    int seq_len,
    const float input[BLOCK_SIZE][N_EMBD],
    float output[BLOCK_SIZE][N_EMBD]
) {
    float q[BLOCK_SIZE][HEAD_SIZE];
    float k[BLOCK_SIZE][HEAD_SIZE];
    float v[BLOCK_SIZE][HEAD_SIZE];
    float att_out[BLOCK_SIZE][N_EMBD];

    for (int t = 0; t < seq_len; t++) {
        float qkv[3 * N_EMBD];
        linear_8_to_24(input[t], transformer_h_0_attn_c_attn_weight, qkv);
        for (int i = 0; i < HEAD_SIZE; i++) {
            q[t][i] = qkv[i];
            k[t][i] = qkv[N_EMBD + i];
            v[t][i] = qkv[2 * N_EMBD + i];
        }
    }

    const float scale = 1.0f / sqrtf((float)HEAD_SIZE);
    for (int t = 0; t < seq_len; t++) {
        float scores[BLOCK_SIZE];
        float max_score = -INFINITY;
        for (int j = 0; j <= t; j++) {
            float dot = 0.0f;
            for (int i = 0; i < HEAD_SIZE; i++) {
                dot += q[t][i] * k[j][i];
            }
            scores[j] = dot * scale;
            if (scores[j] > max_score) {
                max_score = scores[j];
            }
        }

        float denom = 0.0f;
        for (int j = 0; j <= t; j++) {
            scores[j] = expf(scores[j] - max_score);
            denom += scores[j];
        }

        for (int i = 0; i < N_EMBD; i++) {
            float sum = 0.0f;
            for (int j = 0; j <= t; j++) {
                float prob = scores[j] / denom;
                sum += prob * v[j][i];
            }
            att_out[t][i] = sum;
        }
    }

    for (int t = 0; t < seq_len; t++) {
        linear_embd_to_embd(att_out[t], transformer_h_0_attn_c_proj_weight, output[t]);
    }
}

static void mlp(
    int seq_len,
    const float input[BLOCK_SIZE][N_EMBD],
    float output[BLOCK_SIZE][N_EMBD]
) {
    for (int t = 0; t < seq_len; t++) {
        float hidden[MLP_HIDDEN];
        linear_embd_to_mlp(input[t], transformer_h_0_mlp_c_fc_weight, hidden);
        for (int i = 0; i < MLP_HIDDEN; i++) {
            hidden[i] = gelu(hidden[i]);
        }
        linear_mlp_to_embd(hidden, transformer_h_0_mlp_c_proj_weight, output[t]);
    }
}

static void block(
    int seq_len,
    float x[BLOCK_SIZE][N_EMBD]
) {
    float norm[BLOCK_SIZE][N_EMBD];
    float attn[BLOCK_SIZE][N_EMBD];
    float mlp_in[BLOCK_SIZE][N_EMBD];
    float mlp_out[BLOCK_SIZE][N_EMBD];

    layer_norm_sequence(seq_len, x, transformer_h_0_ln_1_weight, norm);
    causal_attention(seq_len, norm, attn);
    for (int t = 0; t < seq_len; t++) {
        for (int i = 0; i < N_EMBD; i++) {
            x[t][i] += attn[t][i];
        }
    }

    layer_norm_sequence(seq_len, x, transformer_h_0_ln_2_weight, mlp_in);
    mlp(seq_len, mlp_in, mlp_out);
    for (int t = 0; t < seq_len; t++) {
        for (int i = 0; i < N_EMBD; i++) {
            x[t][i] += mlp_out[t][i];
        }
    }
}

void gpt_forward_last_logits(const int *tokens, int seq_len, float logits[VOCAB_SIZE]) {
    float x[BLOCK_SIZE][N_EMBD];
    float final_norm[N_EMBD];

    if (seq_len <= 0 || seq_len > BLOCK_SIZE) {
        for (int i = 0; i < VOCAB_SIZE; i++) {
            logits[i] = NAN;
        }
        return;
    }

    for (int t = 0; t < seq_len; t++) {
        int token = tokens[t];
        if (token < 0 || token >= VOCAB_SIZE) {
            for (int i = 0; i < VOCAB_SIZE; i++) {
                logits[i] = NAN;
            }
            return;
        }
        for (int i = 0; i < N_EMBD; i++) {
            x[t][i] = transformer_wte_weight_and_lm_head_weight[token][i] + transformer_wpe_weight[t][i];
        }
    }

    block(seq_len, x);
    layer_norm_row(x[seq_len - 1], transformer_ln_f_weight, final_norm);

    for (int token = 0; token < VOCAB_SIZE; token++) {
        float sum = 0.0f;
        for (int i = 0; i < N_EMBD; i++) {
            sum += final_norm[i] * transformer_wte_weight_and_lm_head_weight[token][i];
        }
        logits[token] = sum;
    }
}

static uint32_t rng_next(uint32_t *state) {
    if (*state == 0) {
        *state = 0x6d2b79f5u;
    }
    uint32_t x = *state;
    x ^= x << 13;
    x ^= x >> 17;
    x ^= x << 5;
    *state = x;
    return x;
}

static float rng_uniform(uint32_t *state) {
    return (float)(rng_next(state) >> 8) * (1.0f / 16777216.0f);
}

static int sample_next_token(
    const float logits[VOCAB_SIZE],
    float temperature,
    int top_k,
    uint32_t *rng_state
) {
    int keep[VOCAB_SIZE] = {0};
    if (top_k <= 0 || top_k >= VOCAB_SIZE) {
        for (int i = 0; i < VOCAB_SIZE; i++) {
            keep[i] = 1;
        }
    } else {
        for (int selected = 0; selected < top_k; selected++) {
            int best = -1;
            float best_value = -INFINITY;
            for (int i = 0; i < VOCAB_SIZE; i++) {
                if (!keep[i] && logits[i] > best_value) {
                    best = i;
                    best_value = logits[i];
                }
            }
            if (best >= 0) {
                keep[best] = 1;
            }
        }
    }

    float scaled[VOCAB_SIZE];
    float max_logit = -INFINITY;
    for (int i = 0; i < VOCAB_SIZE; i++) {
        scaled[i] = keep[i] ? logits[i] / temperature : -INFINITY;
        if (scaled[i] > max_logit) {
            max_logit = scaled[i];
        }
    }

    float denom = 0.0f;
    for (int i = 0; i < VOCAB_SIZE; i++) {
        if (keep[i]) {
            scaled[i] = expf(scaled[i] - max_logit);
            denom += scaled[i];
        } else {
            scaled[i] = 0.0f;
        }
    }

    float r = rng_uniform(rng_state) * denom;
    float cumulative = 0.0f;
    int fallback = 0;
    for (int i = 0; i < VOCAB_SIZE; i++) {
        if (keep[i]) {
            fallback = i;
            cumulative += scaled[i];
            if (r <= cumulative) {
                return i;
            }
        }
    }
    return fallback;
}

static int parse_int_arg(const char *text, int default_value, int min_value, const char *name) {
    if (text == NULL) {
        return default_value;
    }
    char *end = NULL;
    errno = 0;
    long value = strtol(text, &end, 10);
    if (errno != 0 || end == text || *end != '\0' || value < min_value || value > INT_MAX) {
        fprintf(stderr, "invalid %s: %s\n", name, text);
        exit(1);
    }
    return (int)value;
}

static float parse_float_arg(const char *text, float default_value, float min_exclusive, const char *name) {
    if (text == NULL) {
        return default_value;
    }
    char *end = NULL;
    errno = 0;
    float value = strtof(text, &end);
    if (errno != 0 || end == text || *end != '\0' || !(value > min_exclusive)) {
        fprintf(stderr, "invalid %s: %s\n", name, text);
        exit(1);
    }
    return value;
}

static uint32_t parse_seed_arg(const char *text, uint32_t default_value) {
    if (text == NULL) {
        return default_value;
    }
    char *end = NULL;
    errno = 0;
    unsigned long value = strtoul(text, &end, 10);
    if (errno != 0 || end == text || *end != '\0' || value > UINT32_MAX) {
        fprintf(stderr, "invalid seed: %s\n", text);
        exit(1);
    }
    return (uint32_t)value;
}

static void print_usage(const char *argv0) {
    fprintf(stderr, "usage: %s \"prompt text\" [max_new_tokens] [temperature] [top_k] [seed]\n", argv0);
    fprintf(stderr, "       %s --logits-test\n", argv0);
}

static int run_logits_test(void) {
    const int tokens[3] = {1, 2, 3};
    const float expected[10] = {
        0.47008538f, -1.93874407f, 0.35747868f, 3.23914003f, 3.16570234f,
        -0.78396058f, -0.24698855f, 0.83818787f, 0.11417174f, 2.76052022f,
    };
    float logits[VOCAB_SIZE];
    gpt_forward_last_logits(tokens, 3, logits);

    float max_abs_err = 0.0f;
    for (int i = 0; i < 10; i++) {
        float err = fabsf(logits[i] - expected[i]);
        if (err > max_abs_err) {
            max_abs_err = err;
        }
    }

    int argmax = 0;
    for (int i = 1; i < VOCAB_SIZE; i++) {
        if (logits[i] > logits[argmax]) {
            argmax = i;
        }
    }

    printf("first_10_logits:");
    for (int i = 0; i < 10; i++) {
        printf(" %.8f", logits[i]);
    }
    printf("\nargmax: %d\nmax_abs_err_first_10: %.9g\n", argmax, max_abs_err);

    if (argmax != 33 || max_abs_err > 1.0e-4f) {
        return 1;
    }
    return 0;
}

int main(int argc, char **argv) {
    if (argc == 2 && strcmp(argv[1], "--logits-test") == 0) {
        return run_logits_test();
    }

    if (argc < 2) {
        print_usage(argv[0]);
        return 1;
    }

    const char *prompt = argv[1];
    if (prompt[0] == '\0') {
        fprintf(stderr, "prompt must not be empty\n");
        return 1;
    }

    int max_new_tokens = parse_int_arg(argc > 2 ? argv[2] : NULL, 200, 0, "max_new_tokens");
    float temperature = parse_float_arg(argc > 3 ? argv[3] : NULL, 0.8f, 0.0f, "temperature");
    int top_k = parse_int_arg(argc > 4 ? argv[4] : NULL, 20, 0, "top_k");
    uint32_t rng_state = parse_seed_arg(argc > 5 ? argv[5] : NULL, 1337u);

    size_t prompt_len = strlen(prompt);
    if (prompt_len > (size_t)INT_MAX) {
        fprintf(stderr, "prompt is too long\n");
        return 1;
    }

    int capacity = (int)prompt_len + max_new_tokens;
    int *tokens = (int *)malloc((size_t)capacity * sizeof(int));
    if (tokens == NULL) {
        fprintf(stderr, "failed to allocate token buffer\n");
        return 1;
    }

    int token_count = encode_text(prompt, tokens, capacity);
    if (token_count == -1) {
        fprintf(stderr, "prompt contains a character outside the 65-character vocabulary\n");
        free(tokens);
        return 1;
    }
    if (token_count <= 0) {
        fprintf(stderr, "prompt must encode at least one token\n");
        free(tokens);
        return 1;
    }

    fputs(prompt, stdout);
    for (int step = 0; step < max_new_tokens; step++) {
        int context_len = token_count < BLOCK_SIZE ? token_count : BLOCK_SIZE;
        const int *context = tokens + token_count - context_len;
        float logits[VOCAB_SIZE];
        gpt_forward_last_logits(context, context_len, logits);
        int next = sample_next_token(logits, temperature, top_k, &rng_state);
        tokens[token_count++] = next;
        fputc(decode_token(next), stdout);
    }
    fputc('\n', stdout);

    free(tokens);
    return 0;
}
